{
  "layers": [
    {
      "activation": 1,
      "biases": [
        2.6212724560735814,
        -5.980878973953027,
        -5.483249686318954
      ],
      "cols": 3,
      "rows": 10,
      "weights": [
        [
          -3.6506122413561255,
          -13.84005071810713,
          9.384998502677313
        ],
        [
          -0.48275149186325134,
          0.0759331274657145,
          -0.5706347286129008
        ],
        [
          -0.6616377440717843,
          0.9391643589818198,
          -5.377914556738588
        ],
        [
          -1.5408198141212088,
          2.888930661014667,
          5.76251184692119
        ],
        [
          -2.730572389894693,
          2.961416908855507,
          3.0039852602650376
        ],
        [
          -1.3480871690318272,
          5.988795029899176,
          -2.072848837312205
        ],
        [
          -2.9581582145698255,
          1.9320476980749743,
          0.7447708315289672
        ],
        [
          -3.0701708890125197,
          3.946684281032299,
          4.550252823580498
        ],
        [
          -1.3457147440920616,
          -0.026325512632246143,
          1.3436182746891012
        ],
        [
          1.0920329315466124,
          11.074262895007584,
          -4.332215825841726
        ]
      ]
    },
    {
      "activation": 1,
      "biases": [
        -5.428159231225978,
        1.9705672036358388,
        2.720561087179302,
        -1.759178916659296
      ],
      "cols": 4,
      "rows": 3,
      "weights": [
        [
          5.272732808424606,
          -3.4188840033530576,
          -0.5528655917000264,
          -0.526826518975888
        ],
        [
          9.934421419360685,
          -9.437180589775693,
          -6.071622492805368,
          -0.9775283057015134
        ],
        [
          8.522603366240196,
          8.872659536942002,
          -8.132609757553658,
          -0.5859997296548819
        ]
      ]
    }
  ]
}
